#Parameter# /vanilla-lstm-builder/_0 {40,3} 1921 ZERO_GRAD
-9.37294960e-02 +2.21543550e-01 +3.36722970e-01 -2.36501873e-01 +1.73319697e-01 +2.08953619e-01 +7.37065077e-02 +7.23555386e-02 -2.56984115e-01 -4.04676497e-02 -2.57002145e-01 -2.98853695e-01 -3.30150157e-01 -3.04446220e-02 +2.73565531e-01 -1.24234200e-01 +7.55417347e-02 -2.66809702e-01 +1.55448437e-01 +1.12726897e-01 -3.58165264e-01 -3.31399292e-01 +3.51063728e-01 +1.65852487e-01 +2.48363674e-01 +3.27637196e-01 -2.14907810e-01 -3.72961879e-01 -2.37704545e-01 +3.67725074e-01 -2.36524493e-01 +8.77689719e-02 -1.46248132e-01 +8.34146440e-02 +1.84952319e-02 -3.68264526e-01 -5.08430004e-02 -3.56314033e-01 -1.55970082e-01 +1.85088515e-02 +8.35638642e-02 -7.48125911e-02 -2.69329578e-01 -3.38680357e-01 -1.55286103e-01 +3.53936791e-01 -9.98393595e-02 -1.99643150e-01 -3.28195691e-02 -3.05852771e-01 +2.13051379e-01 +8.84447098e-02 -2.24369913e-01 -8.78111720e-02 +1.06343627e-02 +3.61015677e-01 +6.90417588e-02 -2.48310268e-02 -3.38841170e-01 +2.68906951e-01 +8.03453922e-02 +1.34705484e-01 -2.46147260e-01 -3.69813740e-02 -3.24944466e-01 -3.63633603e-01 +3.35356712e-01 +3.30363333e-01 +3.47867787e-01 +4.72818315e-02 +2.30399787e-01 -8.56038928e-02 -1.45970583e-01 -3.61615479e-01 -3.00574064e-01 -2.01045826e-01 +1.37638152e-01 -1.93476602e-01 -4.47113216e-02 +1.36913896e-01 -2.82370448e-01 +8.21771324e-02 -3.60327959e-03 +2.48925686e-01 -3.47852439e-01 -2.44025141e-01 +3.05798113e-01 -8.13872218e-02 -1.80212438e-01 -2.37397403e-01 +1.21418327e-01 +1.90777302e-01 -1.40668273e-01 -5.59150875e-02 +1.49925947e-02 -2.18193084e-01 +3.48966420e-02 +5.05780578e-02 -2.35441253e-01 -3.50149930e-01 +3.50820780e-01 +2.55716622e-01 +2.05548286e-01 -3.75380516e-02 +3.28344107e-01 -7.83319175e-02 +2.94970512e-01 +3.18751454e-01 +7.31398463e-02 +1.69791996e-01 +3.15176904e-01 -1.29589200e-01 -3.07432055e-01 +5.26278019e-02 -2.27127358e-01 +1.55650079e-02 -3.39754939e-01 +3.44535828e-01 -1.30493507e-01 +2.57396877e-01 
#Parameter# /vanilla-lstm-builder/_1 {40,10} 6401 ZERO_GRAD
-7.71266222e-02 +1.71348393e-01 -1.58414021e-01 +2.74994969e-02 +2.27756023e-01 +6.01029694e-02 -9.92442071e-02 +3.22338343e-01 -1.51773021e-01 +7.41555095e-02 +2.95806825e-02 -1.55192316e-01 -2.48774976e-01 -1.41145855e-01 +2.09368229e-01 -2.31909856e-01 -2.94759959e-01 -3.35576952e-01 +3.37325156e-01 -5.30690253e-02 +1.88616693e-01 -7.28282332e-02 -2.08735898e-01 -1.43075585e-01 -3.42584312e-01 -3.36655378e-01 +2.18558133e-01 -2.08648100e-01 +1.43314958e-01 +1.46422029e-01 +1.58660829e-01 +2.01039493e-01 +1.87941611e-01 +7.34111965e-02 -2.95110524e-01 +2.95349896e-01 -9.80578214e-02 +1.04669243e-01 -2.66133726e-01 +2.87492514e-01 +2.51565456e-01 +2.42513835e-01 +8.54234397e-02 -3.50216031e-02 -1.17157295e-01 -2.80308098e-01 -3.02375644e-01 -8.94997418e-02 -1.30955294e-01 +1.16976649e-01 -1.21116534e-01 +1.14954382e-01 +1.59075797e-01 +6.32529855e-02 +9.53025818e-02 -1.56077310e-01 +2.68268883e-01 +4.24306691e-02 -1.92500651e-02 -8.11106265e-02 -2.63552845e-01 +3.26811731e-01 +1.47740334e-01 +2.41734624e-01 +1.80677176e-01 +1.53618693e-01 +4.24540937e-02 -1.82915002e-01 +1.87731564e-01 -1.69000819e-01 -4.29853797e-03 -3.18396926e-01 +1.57497823e-02 +1.45951539e-01 -5.02010584e-02 -2.69582748e-01 -3.28799278e-01 -4.20289040e-02 -2.71660775e-01 -2.06654996e-01 -3.24635386e-01 +2.74193048e-01 +9.45079029e-02 -1.70640051e-02 -1.28617957e-01 +4.38385904e-02 +5.93793392e-03 +1.35457546e-01 +2.82370329e-01 -2.49878496e-01 -1.73695445e-01 +7.23424852e-02 -6.20885193e-02 +2.76027322e-02 +1.77051008e-01 -2.05725223e-01 -1.87894136e-01 +3.06817949e-01 -2.93076903e-01 +6.84959888e-02 -1.45664468e-01 +1.34950966e-01 -2.34712780e-01 +2.63595819e-01 +2.97703266e-01 +8.61550272e-02 +2.13472068e-01 -1.41589135e-01 +9.24248397e-02 -2.73321599e-01 +2.57355452e-01 -3.01137269e-02 +2.10390210e-01 -1.95070177e-01 -2.17150629e-01 -5.78435957e-02 +2.71972835e-01 +2.65544355e-01 +2.72570848e-02 -1.21697336e-01 +2.13000774e-01 -2.61825144e-01 +2.74420083e-01 -9.95597690e-02 -1.26090884e-01 +2.81859040e-01 -2.70163953e-01 -1.57871410e-01 -1.88492045e-01 +1.02322727e-01 -5.05011976e-02 -3.46049637e-01 +2.20327079e-01 -1.02143288e-01 +2.49921501e-01 -1.35251507e-01 -3.41593564e-01 -2.32333243e-01 +7.44596124e-03 +2.36178637e-02 -5.72193265e-02 -1.05101168e-02 -1.92529351e-01 +1.33323610e-01 -2.63365000e-01 -1.59755811e-01 -1.12503514e-01 -1.77275047e-01 +3.06856871e-01 -2.29814708e-01 -1.22488588e-01 -1.94845870e-01 +1.30185187e-02 +4.02542651e-02 +1.40655667e-01 -6.66242540e-02 -9.44801867e-02 -3.01451504e-01 +3.26860189e-01 -1.70492411e-01 +3.20392847e-01 -1.75369412e-01 -1.71970263e-01 +1.36003584e-01 -1.90630555e-03 +1.47065401e-01 -1.37955546e-01 -2.43812516e-01 -1.49066880e-01 +3.44844759e-01 -3.20854127e-01 -1.61578864e-01 +7.59083629e-02 +3.30208540e-01 +1.85608864e-03 -6.16353452e-02 -3.10744643e-01 -3.23511928e-01 -1.53358221e-01 -1.07337788e-01 +2.82854915e-01 +9.30813551e-02 -1.80436820e-01 +1.25196397e-01 -2.46024042e-01 +2.14321017e-02 -7.30735064e-03 -3.61768901e-02 +3.36468518e-01 +3.66454124e-02 -1.78709343e-01 +6.42221868e-02 +1.19259000e-01 -2.90393323e-01 +1.81255400e-01 -9.03060436e-02 -1.81770042e-01 -1.78636834e-01 +1.58112943e-01 +2.10021377e-01 -9.16025341e-02 -2.05763280e-02 +9.16641355e-02 +3.34925354e-01 +9.25121009e-02 -7.00964630e-02 +2.47854590e-02 +2.19230413e-01 -2.83855557e-01 +2.06699550e-01 +2.32304335e-01 -2.41989970e-01 -1.24167204e-01 +5.68029284e-03 -2.17186347e-01 +1.35663092e-01 -3.18160295e-01 +2.48278260e-01 +6.29724860e-02 -1.20579198e-01 +1.23020202e-01 -1.93822682e-01 -3.34917784e-01 +1.46288663e-01 +8.37832689e-03 +2.14428604e-01 -1.89489290e-01 -1.04847282e-01 +1.00578636e-01 -2.79777080e-01 -2.25605547e-01 +3.05203438e-01 +1.32285565e-01 -7.09641874e-02 -7.84720480e-02 +1.22984946e-02 +3.02575409e-01 +2.33972430e-01 -2.51132846e-01 +1.21721685e-01 -1.10112458e-01 +1.62962496e-01 -2.67793387e-01 -2.01561093e-01 +2.94236362e-01 +2.87160277e-02 +2.61428356e-01 +1.35643393e-01 -1.67702958e-01 -1.88066065e-01 +1.10840201e-01 -2.25197822e-01 +2.19777942e-01 +3.34056020e-01 +3.82442474e-02 +1.15256906e-02 +2.05425024e-02 -1.65702403e-01 -1.78849980e-01 +3.43814671e-01 -2.81906664e-01 +3.22452009e-01 +2.75199175e-01 +4.03868854e-02 +2.77417779e-01 +2.65098274e-01 +9.22153890e-02 -2.15670034e-01 -1.11523435e-01 -1.53202415e-01 -1.04470670e-01 +1.38812006e-01 +1.56546652e-01 +2.40173876e-01 +2.75126100e-01 +2.46868730e-01 +2.68181384e-01 -6.61587119e-02 +1.93903446e-01 +2.68655002e-01 +9.84024107e-02 +2.43130326e-01 -2.88116276e-01 +3.01816761e-01 -2.34430507e-01 +1.97689831e-01 +2.76126444e-01 +1.17078483e-01 +7.37361908e-02 +5.59013486e-02 -3.40038240e-01 -8.84850919e-02 -2.76108623e-01 +3.04933369e-01 +1.13277316e-01 +3.28163922e-01 -3.42903376e-01 -1.49703935e-01 -2.34999061e-01 -1.34847865e-01 +3.37637365e-02 -9.96708870e-03 +1.32948875e-01 -3.57328057e-02 +1.05281860e-01 +3.42570186e-01 -1.91031814e-01 -2.24525571e-01 +1.47002101e-01 -3.33887190e-01 -1.82039171e-01 -4.23055887e-03 -1.20966643e-01 -2.22518146e-01 +1.70774281e-01 -9.25131440e-02 +1.03668690e-01 +1.69166327e-01 +2.41949081e-01 +1.53071672e-01 +1.09197438e-01 -1.32979378e-01 +4.73255813e-02 +2.94727385e-02 -2.81510383e-01 +6.10658526e-03 -9.16491747e-02 +9.44540203e-02 -1.62672564e-01 -1.72885120e-01 -1.77369177e-01 +6.22643530e-02 +3.27711284e-01 +3.31786692e-01 -7.40640759e-02 -9.18531418e-03 +2.71617830e-01 +2.81353474e-01 +9.08555090e-02 -4.54529226e-02 +2.04251289e-01 -1.03868723e-01 +1.82703137e-03 +1.00530535e-01 +5.32805622e-02 +1.17033988e-01 -5.18390536e-03 +2.52302706e-01 -2.11141855e-01 -1.86933130e-01 +1.54119313e-01 -5.58853149e-04 -1.51885360e-01 +4.98859584e-02 -3.29563558e-01 +1.86059713e-01 +1.00786150e-01 -3.16200584e-01 -2.23704278e-01 +3.42634678e-01 +3.05158675e-01 -2.08230615e-02 +3.14490974e-01 -1.52725086e-01 +2.87426472e-01 +2.65692472e-01 -8.99567008e-02 +1.71624601e-01 -3.35701495e-01 +3.13897371e-01 +2.96747804e-01 -1.17259622e-01 -4.97554839e-02 +3.65566313e-02 +3.23307931e-01 +5.00856638e-02 +3.21205318e-01 +3.32783461e-01 +2.44572103e-01 -2.94208735e-01 -1.42409995e-01 -1.34617046e-01 -7.96066225e-02 -2.14143127e-01 +2.43274629e-01 -1.60405323e-01 -1.26840144e-01 -1.01983845e-02 -2.28982136e-01 -8.82051289e-02 +3.93530726e-02 -7.29598999e-02 +3.02176893e-01 +2.38477826e-01 +1.35813415e-01 +2.97924399e-01 +4.85397875e-02 -2.97624439e-01 -2.79084295e-01 -2.01667026e-01 
#Parameter# /vanilla-lstm-builder/_2 {40} 641 ZERO_GRAD
+0.00000000e+00 +0.00000000e+00 +0.00000000e+00 +0.00000000e+00 +0.00000000e+00 +0.00000000e+00 +0.00000000e+00 +0.00000000e+00 +0.00000000e+00 +0.00000000e+00 +0.00000000e+00 +0.00000000e+00 +0.00000000e+00 +0.00000000e+00 +0.00000000e+00 +0.00000000e+00 +0.00000000e+00 +0.00000000e+00 +0.00000000e+00 +0.00000000e+00 +0.00000000e+00 +0.00000000e+00 +0.00000000e+00 +0.00000000e+00 +0.00000000e+00 +0.00000000e+00 +0.00000000e+00 +0.00000000e+00 +0.00000000e+00 +0.00000000e+00 +0.00000000e+00 +0.00000000e+00 +0.00000000e+00 +0.00000000e+00 +0.00000000e+00 +0.00000000e+00 +0.00000000e+00 +0.00000000e+00 +0.00000000e+00 +0.00000000e+00 
#Parameter# /vanilla-lstm-builder/_3 {40,10} 6401 ZERO_GRAD
+7.96793401e-02 +1.18571728e-01 +3.39519262e-01 -9.79323834e-02 -2.49357104e-01 -1.70320421e-01 +1.26991868e-02 -1.41826838e-01 +2.61451721e-01 -1.22940421e-01 +1.66809380e-01 +2.41565526e-01 +1.36496514e-01 -2.51756132e-01 +1.40285075e-01 +1.44737780e-01 -9.73473936e-02 +3.65947485e-02 -1.43003747e-01 -1.40981913e-01 +2.14331686e-01 -5.55774570e-02 +2.14852870e-01 -1.68904796e-01 +2.54315197e-01 +7.72589743e-02 +2.86301434e-01 -2.89880037e-01 +7.85824656e-03 -3.42817992e-01 +1.05050206e-03 +8.86078477e-02 +2.06664979e-01 -2.11813211e-01 +1.03898048e-01 -2.97260851e-01 +1.39926761e-01 -7.15102553e-02 +2.04931200e-01 -3.11236680e-01 +2.70203650e-01 +2.67856181e-01 -1.12240240e-01 -3.27276707e-01 -8.61986578e-02 +5.46391904e-02 -2.81297565e-01 -4.26263809e-02 +5.42340875e-02 +1.19183213e-01 -3.21508616e-01 -1.19059324e-01 -2.38344073e-02 -2.38994181e-01 +2.95450687e-02 +3.33829165e-01 -1.47888556e-01 +2.34820008e-01 +6.29311204e-02 +2.49695659e-01 -3.25278968e-01 -1.73030943e-01 -3.20534557e-01 -3.19504678e-01 +2.23504186e-01 -1.36301652e-01 -9.68627781e-02 +2.56914496e-02 -2.58380055e-01 -1.20099545e-01 +1.54105723e-02 +2.27154315e-01 +1.87057018e-01 -1.58279717e-01 -1.96884960e-01 +3.22335899e-01 +8.51410031e-02 -2.96075642e-02 -2.87279695e-01 +2.36960530e-01 -3.10604006e-01 -2.11739719e-01 +2.17231214e-02 -6.14158213e-02 +2.81528234e-02 +1.38226092e-01 +9.52142179e-02 -2.50556320e-01 +1.56640649e-01 -2.54441440e-01 +3.29679966e-01 +3.25304687e-01 +1.12932026e-02 +1.48675829e-01 -1.22659355e-01 -3.17957759e-01 +2.04510987e-01 -7.00989366e-02 -1.58772081e-01 -4.60581779e-02 -4.22818363e-02 +1.69077694e-01 -2.92053968e-01 -1.72608882e-01 -3.28846633e-01 -2.18700051e-01 +3.20532203e-01 -2.90379733e-01 +2.32773840e-01 -4.96651828e-02 +1.35774940e-01 +1.30596578e-01 -6.30792379e-02 -3.06092441e-01 -2.26348341e-01 +2.87668467e-01 -2.38027394e-01 -3.99395525e-02 -1.73036799e-01 -1.80280611e-01 +3.41052115e-02 -2.81372845e-01 +1.48676395e-01 -2.19716877e-01 +1.10987991e-01 +3.01109433e-01 -1.52466267e-01 +9.57967043e-02 +3.15139890e-01 +1.15675032e-02 +1.64819837e-01 +1.08849943e-01 +3.76576185e-02 -4.45671082e-02 +7.74024129e-02 +1.59375906e-01 -5.57027161e-02 -3.13351452e-01 -1.74777091e-01 +4.57519293e-02 -9.97850597e-02 -2.36496672e-01 +1.78641021e-01 -2.63157636e-01 -3.36438060e-01 -1.09548986e-01 -2.65992671e-01 -2.82809883e-01 -3.14538598e-01 -2.81176269e-01 -3.18192422e-01 -1.30656689e-01 +2.46270299e-01 +3.32214653e-01 +1.41098320e-01 -2.24937797e-01 -1.78928971e-02 -3.34520578e-01 -2.78628647e-01 +1.82464242e-01 -5.80871105e-03 +2.12635517e-01 -1.83793008e-02 -1.06483489e-01 -2.26412386e-01 -2.44747102e-02 -4.58289087e-02 +1.03766233e-01 -7.03179836e-02 -3.13113958e-01 +8.02632868e-02 +3.11177313e-01 +9.35956240e-02 +2.67899990e-01 -3.15022618e-01 -1.65657759e-01 -8.68709087e-02 -3.35806847e-01 +8.71983171e-02 +3.00293505e-01 +2.17288733e-03 +7.20441341e-04 +2.46983409e-01 +2.72814929e-02 +1.09946162e-01 +1.27453834e-01 -2.33525872e-01 +8.02640319e-02 -2.97518700e-01 +3.07537079e-01 +9.86709595e-02 +3.07786524e-01 -3.28042597e-01 +2.54402876e-01 +5.94270527e-02 +9.45031941e-02 +3.05000484e-01 +2.08503783e-01 +5.22900522e-02 +1.22745842e-01 -7.74781406e-02 +5.08301854e-02 +9.92729664e-02 -2.57382512e-01 -2.89232433e-02 +2.15608597e-01 +3.16042602e-02 +2.22145557e-01 +3.05855751e-01 +8.72535706e-02 -7.89104104e-02 +2.21998215e-01 +3.19522202e-01 +1.04951739e-01 +2.80835152e-01 -2.03215033e-01 -2.10762084e-01 -1.56604320e-01 -2.98355222e-01 -1.97738454e-01 -2.76589096e-01 -8.50374103e-02 -3.33785713e-01 -3.19415689e-01 -2.80978143e-01 +8.19287002e-02 +1.26790792e-01 -1.13238543e-01 -2.97089219e-01 +1.07887805e-01 -1.25417367e-01 -7.93995559e-02 +2.38936663e-01 +1.25825644e-01 -3.30286890e-01 -1.10418528e-01 +2.17870176e-01 -1.65795684e-01 -1.51135445e-01 -2.74533033e-03 -2.64543176e-01 +1.33638352e-01 +1.36303514e-01 -1.05075479e-01 +8.93342197e-02 +3.02518666e-01 +2.61520326e-01 -3.19261074e-01 +1.62862003e-01 -5.68486452e-02 +2.10257769e-01 +3.23949277e-01 -1.51010871e-01 +3.32359076e-02 -2.23476440e-01 -5.30208945e-02 +1.73631012e-01 +4.74722683e-02 +2.12581336e-01 +5.26020825e-02 +3.39831948e-01 +1.60490274e-01 -6.05402291e-02 -2.57944107e-01 -8.86684656e-02 -1.73193678e-01 +1.91504538e-01 +5.58025241e-02 -1.10294551e-01 +2.54345834e-01 +2.98437417e-01 +4.28625047e-02 +2.48315632e-01 -1.81105405e-01 -4.91943657e-02 +1.24600142e-01 +1.73808575e-01 +1.66213632e-01 +1.76352501e-01 -1.81355312e-01 -2.74963856e-01 -8.47119093e-02 +2.78896809e-01 +2.37827599e-02 +3.63895297e-03 -2.38245726e-03 +2.26176322e-01 -7.64748156e-02 -1.24673277e-01 -1.40202463e-01 +2.74026513e-01 -2.77138591e-01 -7.67633319e-02 -3.09354454e-01 -3.38901609e-01 +3.17686856e-01 +2.80856848e-01 +2.40507841e-01 -2.83164889e-01 -1.00524634e-01 -1.25183180e-01 +3.16480935e-01 +3.11812103e-01 +1.22469783e-01 +3.12189758e-01 -1.21098459e-02 +5.08792400e-02 -4.83196974e-03 +9.13394690e-02 -2.88709015e-01 -3.57179940e-02 -2.82875657e-01 -1.43267781e-01 +7.09731877e-02 -1.18704692e-01 +3.72065902e-02 +1.19524270e-01 -1.99027956e-01 +1.74850225e-01 +3.09132636e-01 +2.02011883e-01 +1.94887638e-01 +2.00653315e-01 -2.67799586e-01 -2.83220708e-01 +2.98556447e-01 -3.86574864e-03 +3.28568816e-01 -3.06532294e-01 +3.43591273e-01 +3.43146324e-02 -3.07701468e-01 -4.05088663e-02 +1.64223075e-01 +2.68609345e-01 +3.18113863e-02 -1.03289112e-01 +1.42604232e-01 -2.65303731e-01 +3.24691594e-01 -2.47342616e-01 +1.30271018e-01 +1.81179881e-01 +2.33455420e-01 +8.19038749e-02 +2.54174113e-01 -2.76350319e-01 +2.34506369e-01 -2.88139254e-01 -5.12053370e-02 +1.39235526e-01 -1.92204684e-01 -2.95998454e-01 -7.16018677e-02 +2.22991168e-01 +2.71514118e-01 +1.42888784e-01 -2.44839355e-01 -2.90050060e-01 +9.23264027e-03 -2.87632853e-01 -1.84825003e-01 +3.37153792e-01 +5.63300550e-02 -8.71077478e-02 +2.51589715e-01 -8.96217525e-02 +2.63521075e-01 +2.16713905e-01 -1.82429850e-01 +3.09862912e-01 +2.82458484e-01 +3.36711407e-01 +6.36623800e-02 +1.75545573e-01 -1.03771850e-01 -8.57298672e-02 +1.44232154e-01 -2.88559169e-01 -1.27014816e-02 +1.92013025e-01 -8.45326781e-02 +4.04636562e-02 +1.42086625e-01 -5.25005162e-02 -1.74089015e-01 +2.81530559e-01 -1.17604494e-01 -2.69370288e-01 -4.54130769e-02 -5.10945916e-03 -1.70653999e-01 -3.38544130e-01 -6.56779110e-02 -2.17125416e-02 +4.95179594e-02 -3.07402104e-01 +1.66951597e-01 -2.64090687e-01 +1.85118020e-01 
#Parameter# /vanilla-lstm-builder/_4 {40,10} 6401 ZERO_GRAD
-2.64985591e-01 +2.23635674e-01 +1.03375912e-01 +1.69194818e-01 +1.70464873e-01 +1.25427812e-01 +5.77595830e-02 -1.81860849e-01 +3.20202529e-01 -6.91275895e-02 -8.66922140e-02 -1.54395700e-02 -1.48463011e-01 -2.88981378e-01 +2.55372941e-01 +1.96554065e-02 -1.91498414e-01 -4.41078246e-02 +3.20930004e-01 +2.09307432e-01 -3.37989300e-01 +3.31099272e-01 +3.25541615e-01 +3.88014317e-02 -3.16508085e-01 -1.22846484e-01 +2.70991921e-01 -3.16341221e-01 +1.91918612e-02 +2.94201553e-01 +3.41536045e-01 +2.90371895e-01 -2.95282394e-01 -1.71133444e-01 +3.73113453e-02 +1.35384798e-01 +3.25142324e-01 -2.94147551e-01 +1.60026848e-02 -2.31252730e-01 +8.96500051e-02 -1.96200401e-01 +1.35618657e-01 -1.42378777e-01 -3.14948857e-02 +3.43522072e-01 +8.83748233e-02 +1.36433661e-01 +5.84146380e-02 -8.02273154e-02 +2.77930439e-01 +1.64268196e-01 -3.14923972e-01 +2.87696660e-01 -1.51753157e-01 +3.17798316e-01 +3.12054217e-01 -3.06320876e-01 +2.70382702e-01 -7.30774403e-02 -3.07219028e-02 -2.72447377e-01 +8.32303166e-02 -1.13858044e-01 -1.54234841e-01 -2.28852466e-01 -2.16076002e-01 +1.01739526e-01 -2.51504779e-02 -7.74099231e-02 -1.01600558e-01 -1.87480807e-01 +5.79586625e-02 -1.62162960e-01 -2.92554021e-01 -9.67557579e-02 +3.28670323e-01 -1.66311607e-01 +3.36856663e-01 -3.23956907e-02 +1.37290478e-01 -3.24021012e-01 +2.50083208e-02 -1.52584299e-01 -1.31963149e-01 -6.15177751e-02 +2.17403591e-01 +7.12093711e-02 +1.27985507e-01 -1.58685192e-01 -2.33745843e-01 -2.54136801e-01 +2.84698665e-01 -2.93616980e-01 +2.23460376e-01 +3.05209398e-01 +3.11630487e-01 -5.77541590e-02 +1.56383038e-01 +5.62311113e-02 +7.85763562e-02 +2.90414035e-01 -5.66428900e-02 -2.89080381e-01 +2.99803078e-01 +2.60958731e-01 +2.53616512e-01 +3.57411206e-02 -3.15081745e-01 -2.32209623e-01 -3.28142583e-01 -6.14842474e-02 -8.55886936e-02 +1.92328453e-01 +2.15157628e-01 -1.36000216e-02 +3.37594807e-01 +3.36216033e-01 -2.42198274e-01 -8.53977501e-02 +6.52156472e-02 +1.72912896e-01 -8.25212300e-02 -7.41390884e-02 +3.25566232e-01 +2.28051662e-01 +2.37026930e-01 +4.78610694e-02 +2.34400988e-01 -3.02407861e-01 -2.16900110e-02 -3.20899218e-01 -5.90147674e-02 -2.53674686e-01 -1.56988189e-01 -3.36937934e-01 -3.07352066e-01 -2.94199854e-01 +2.52687037e-01 +1.32823646e-01 +2.16784179e-01 +2.37958133e-02 +3.46214533e-01 +1.73143268e-01 +3.44080091e-01 +2.86249638e-01 +3.84042263e-02 +5.89933097e-02 +1.86359942e-01 +1.56661093e-01 +3.08142722e-01 +1.78111076e-01 +2.42242813e-01 -8.46275985e-02 -1.75042361e-01 -1.79381683e-01 -3.42640281e-02 -2.04350591e-01 -2.56925881e-01 -1.72205731e-01 +3.14575791e-01 -1.56070396e-01 +7.35599399e-02 -2.02838629e-01 -1.88001782e-01 +2.62038946e-01 +1.18957698e-01 +1.78054214e-01 +8.18416476e-02 -3.13919336e-01 -9.82677341e-02 -1.60268396e-01 -2.67735153e-01 -3.31040114e-01 +1.18869424e-01 -1.27118826e-03 +1.40695870e-02 -1.64817274e-02 +1.88667715e-01 +2.29580879e-01 +1.39696598e-02 -1.33175835e-01 +2.43998468e-01 +2.19198465e-01 +3.59621048e-02 +3.24221730e-01 +4.22190726e-02 -2.85159141e-01 +2.60953248e-01 +2.02177346e-01 -6.68690503e-02 +6.23233020e-02 -2.53561676e-01 -1.38245523e-02 -3.26468945e-01 -5.50544262e-02 +1.76764250e-01 +1.97223961e-01 +8.33528936e-02 +9.65524018e-02 +1.41390592e-01 +2.11341143e-01 -1.98864251e-01 +2.79311240e-01 -2.51929224e-01 +8.12427104e-02 -3.36333305e-01 +3.32874358e-01 -1.03515983e-01 +7.48854578e-02 +6.22967780e-02 +9.46699381e-02 -7.46555030e-02 +3.79773676e-02 -4.33186293e-02 -2.83362061e-01 +2.80009389e-01 +1.56852484e-01 -1.05131701e-01 +3.28717530e-02 +9.69222188e-03 -3.40102315e-02 +1.96520567e-01 +2.84382820e-01 -7.16772676e-02 -1.39977798e-01 +8.45841467e-02 +1.63521171e-02 +2.51052916e-01 +1.36930287e-01 +3.11437011e-01 +2.05401659e-01 -2.44514674e-01 -2.81653702e-02 +2.95548558e-01 +2.37007916e-01 -5.46199083e-03 +1.86311662e-01 -1.67493194e-01 -3.00520509e-01 -2.83115804e-02 -3.14636528e-01 +3.32576334e-01 +8.36966336e-02 -5.11434674e-03 -1.05715081e-01 -1.18644357e-01 -2.01520100e-01 +9.24228132e-02 +5.51830828e-02 -1.80032387e-01 -1.09768212e-01 -2.93850511e-01 +2.58168280e-02 -2.57119656e-01 -2.76302695e-02 -2.57697403e-01 +5.87276816e-02 -2.41168886e-01 -6.90738261e-02 -2.50227869e-01 +1.36948138e-01 +9.76008773e-02 -2.21655890e-01 -2.20399931e-01 +1.36140227e-01 -1.06924847e-01 -6.12029135e-02 +2.74903059e-01 +2.59334803e-01 -1.80398822e-02 +1.05558634e-02 +1.16087377e-01 +3.27780485e-01 -2.27023453e-01 +7.06229210e-02 -2.13188410e-01 -1.91322967e-01 -3.18095565e-01 +2.22943068e-01 -2.29368508e-01 -1.07329890e-01 -1.53397098e-01 -1.05572507e-01 -2.23773688e-01 -3.24375212e-01 -2.84955233e-01 +3.37509513e-02 -2.62831181e-01 +2.38493085e-02 -2.71732509e-02 -9.97720212e-02 -2.03457966e-01 +2.73121715e-01 -9.40366089e-02 -2.57210642e-01 +2.36755610e-03 -1.17710501e-01 +1.31909400e-01 -1.23611078e-01 -3.19173902e-01 -2.82469362e-01 +2.07437634e-01 -1.30628645e-02 +8.86119604e-02 +1.30101085e-01 -2.89765835e-01 +8.07622075e-03 +2.58822858e-01 -2.37652838e-01 +2.91588962e-01 -8.50187838e-02 -3.04094106e-01 -3.44612271e-01 -1.54583707e-01 +2.55166471e-01 +2.12142467e-01 -2.87855059e-01 +1.71999335e-01 +6.73962235e-02 -2.18570247e-01 +3.36888731e-01 -2.01368690e-01 +2.53507495e-02 -8.97395611e-02 +2.93784738e-01 -1.07227862e-02 -1.82823822e-01 +8.19293261e-02 +1.80102408e-01 -9.08192992e-02 +2.16615498e-02 -2.59566903e-02 +1.52778029e-01 +1.71452880e-01 -3.03218782e-01 -3.20995271e-01 -2.44053513e-01 -1.71516716e-01 -2.54184037e-01 +1.47812933e-01 +1.29672050e-01 +2.73807287e-01 +2.38635540e-01 +8.09037685e-03 +1.72939181e-01 +2.22488940e-02 -3.25298429e-01 -2.72159219e-01 +2.54414022e-01 -3.64337862e-02 -1.01050153e-01 +2.25979090e-02 -7.12469816e-02 -1.78421661e-01 -2.73754656e-01 -1.59872964e-01 +1.64479136e-01 -8.50200057e-02 -2.20120177e-01 -3.32504421e-01 +4.43163216e-02 -1.23267174e-01 +2.36050785e-01 -1.99914679e-01 -2.84607589e-01 -1.19513333e-01 +2.44811773e-02 -2.63436526e-01 -1.84833094e-01 +2.70565271e-01 -1.08823463e-01 +6.48427606e-02 -1.80341601e-02 +1.24085724e-01 -1.00386679e-01 +2.00343668e-01 +1.03107482e-01 -1.07926130e-03 -1.41459405e-02 -2.86190033e-01 +5.83351254e-02 +2.57081389e-02 +1.64075434e-01 +6.01652861e-02 +4.00049984e-02 +1.70045435e-01 +5.99535108e-02 -4.73476648e-02 +4.46581841e-02 -2.58019924e-01 -8.39887857e-02 -1.49804458e-01 -1.12620130e-01 -9.48593616e-02 +2.76883841e-01 +1.01094425e-01 +7.45164454e-02 +4.90366518e-02 -1.77117318e-01 
#Parameter# /vanilla-lstm-builder/_5 {40} 641 ZERO_GRAD
+0.00000000e+00 +0.00000000e+00 +0.00000000e+00 +0.00000000e+00 +0.00000000e+00 +0.00000000e+00 +0.00000000e+00 +0.00000000e+00 +0.00000000e+00 +0.00000000e+00 +0.00000000e+00 +0.00000000e+00 +0.00000000e+00 +0.00000000e+00 +0.00000000e+00 +0.00000000e+00 +0.00000000e+00 +0.00000000e+00 +0.00000000e+00 +0.00000000e+00 +0.00000000e+00 +0.00000000e+00 +0.00000000e+00 +0.00000000e+00 +0.00000000e+00 +0.00000000e+00 +0.00000000e+00 +0.00000000e+00 +0.00000000e+00 +0.00000000e+00 +0.00000000e+00 +0.00000000e+00 +0.00000000e+00 +0.00000000e+00 +0.00000000e+00 +0.00000000e+00 +0.00000000e+00 +0.00000000e+00 +0.00000000e+00 +0.00000000e+00 
#LookupParameter# /_0 {3,12} 577 ZERO_GRAD
+1.45000000e+01 +2.29999995e+00 -7.90000010e+00 +1.35000000e+01 +3.29999995e+00 -5.90000010e+00 +1.25000000e+01 +4.30000019e+00 -3.90000010e+00 +1.15000000e+01 +5.30000019e+00 -1.90000010e+00 +1.05000000e+01 +6.30000019e+00 +9.99999046e-02 +9.50000000e+00 +7.30000019e+00 +2.09999990e+00 +8.50000000e+00 +8.30000019e+00 +4.09999990e+00 +7.50000000e+00 +9.30000019e+00 +6.09999990e+00 +6.50000000e+00 +1.03000002e+01 +8.10000038e+00 +5.50000000e+00 +1.13000002e+01 +1.01000004e+01 +4.50000000e+00 +1.23000002e+01 +1.21000004e+01 +3.50000000e+00 +1.33000002e+01 +1.41000004e+01 
